Language model created by QuickLM on Thu Mar 23 10:16:00 EDT 2017
Copyright (c) 1996-2010 Carnegie Mellon University and Alexander I. Rudnicky

The model is in standard ARPA format, designed by Doug Paul while he was at MITRE.

The code that was used to produce this language model is available in Open Source.
Please visit http://www.speech.cs.cmu.edu/tools/ for more information

The (fixed) discount mass is 0.5. The backoffs are computed using the ratio method.
This model based on a corpus of 7 sentences and 9 words

\data\
ngram 1=9
ngram 2=14
ngram 3=7

\1-grams:
-0.7782 </s> -0.3010
-0.7782 <s> -0.2218
-1.6232 BHAKTAPUR -0.2218
-1.6232 , -0.2218
-1.6232 - -0.2218
-1.6232 . -0.2218
-1.6232 NEPAL -0.2218
-1.6232 ? -0.2218
-1.6232 THALACHHEN -0.2218

\2-grams:
-1.1461 <s> BHAKTAPUR 0.0000
-1.1461 <s> , 0.0000
-1.1461 <s> - 0.0000
-1.1461 <s> . 0.0000
-1.1461 <s> NEPAL 0.0000
-1.1461 <s> ? 0.0000
-1.1461 <s> THALACHHEN 0.0000
-0.3010 BHAKTAPUR </s> -0.3010
-0.3010 , </s> -0.3010
-0.3010 - </s> -0.3010
-0.3010 . </s> -0.3010
-0.3010 NEPAL </s> -0.3010
-0.3010 ? </s> -0.3010
-0.3010 THALACHHEN </s> -0.3010

\3-grams:
-0.3010 <s> BHAKTAPUR </s>
-0.3010 <s> , </s>
-0.3010 <s> - </s>
-0.3010 <s> . </s>
-0.3010 <s> NEPAL </s>
-0.3010 <s> ? </s>
-0.3010 <s> THALACHHEN </s>

\end\
